svm_type c_svc
kernel_type rbf
gamma 0.0666667
nr_class 2
total_sv 13
rho 0.2239
label 1 -1
nr_sv 6 7
SV
0.5968575259218084 8:1 9:1 10:1 11:1 12:1 13:1 14:1 15:1 
1 8:1 9:1 10:1 11:1 12:1 13:1 14:1 15:1 
1 8:1 9:1 10:1 11:1 12:1 13:1 14:1 15:1 
1 8:1 9:1 10:1 11:1 12:1 13:1 14:1 15:1 
0.8909034141099703 0:1 1:1 2:1 3:1 4:1 5:1 6:1 7:1 8:1 9:1 10:1 11:1 12:1 13:1 14:1 15:1 
0.8437754758953137 0:1 1:1 2:1 3:1 4:1 5:1 6:1 7:1 8:1 9:1 10:1 11:1 12:1 13:1 14:1 15:1 
-1 11:1 15:1 
-1 8:1 9:1 12:1 13:1 
-0.0480987037441629 0:1 1:1 4:1 5:1 8:1 9:1 12:1 13:1 
-0.3883037108110454 3:1 7:1 11:1 15:1 
-1 0:1 1:1 4:1 5:1 8:1 9:1 12:1 13:1 
-0.895134001371884 3:1 7:1 11:1 15:1 
-1 0:1 1:1 4:1 5:1 8:1 9:1 12:1 13:1 
